#pragma once
#include <cstdarg>
namespace Eloquent {
    namespace ML {
        namespace Port {
            class Classifier {
                public:
                    /**
                    * Predict class for features vector
                    */
                    int predict(float *x) {
                        uint8_t votes[2] = { 0 };
                        // tree #1
                        if (x[9] <= 93.99399948120117) {
                            if (x[353] <= -11.199999809265137) {
                                votes[1] += 1;
                            }

                            else {
                                votes[1] += 1;
                            }
                        }

                        else {
                            if (x[404] <= -0.6875) {
                                votes[1] += 1;
                            }

                            else {
                                votes[0] += 1;
                            }
                        }

                        // tree #2
                        if (x[3] <= 121.79550170898438) {
                            if (x[200] <= 0.3945000022649765) {
                                votes[1] += 1;
                            }

                            else {
                                votes[1] += 1;
                            }
                        }

                        else {
                            if (x[367] <= -0.9429999887943268) {
                                votes[1] += 1;
                            }

                            else {
                                votes[0] += 1;
                            }
                        }

                        // tree #3
                        if (x[383] <= -24.139500617980957) {
                            if (x[428] <= -0.7409999966621399) {
                                votes[1] += 1;
                            }

                            else {
                                votes[1] += 1;
                            }
                        }

                        else {
                            if (x[248] <= -0.0859999991953373) {
                                votes[1] += 1;
                            }

                            else {
                                votes[0] += 1;
                            }
                        }

                        // tree #4
                        if (x[407] <= -30.76200008392334) {
                            if (x[3] <= 525.8179931640625) {
                                votes[1] += 1;
                            }

                            else {
                                votes[0] += 1;
                            }
                        }

                        else {
                            if (x[248] <= -0.042500000447034836) {
                                votes[1] += 1;
                            }

                            else {
                                votes[0] += 1;
                            }
                        }

                        // tree #5
                        if (x[293] <= -36.52950096130371) {
                            if (x[488] <= 0.33949999511241913) {
                                votes[1] += 1;
                            }

                            else {
                                votes[1] += 1;
                            }
                        }

                        else {
                            if (x[209] <= 81.57350158691406) {
                                votes[0] += 1;
                            }

                            else {
                                votes[1] += 1;
                            }
                        }

                        // tree #6
                        if (x[309] <= 30.30399990081787) {
                            if (x[407] <= -21.08750057220459) {
                                votes[1] += 1;
                            }

                            else {
                                votes[0] += 1;
                            }
                        }

                        else {
                            if (x[295] <= -3.1545000076293945) {
                                votes[0] += 1;
                            }

                            else {
                                votes[1] += 1;
                            }
                        }

                        // tree #7
                        if (x[401] <= -26.977999687194824) {
                            if (x[21] <= -204.31500244140625) {
                                votes[0] += 1;
                            }

                            else {
                                votes[1] += 1;
                            }
                        }

                        else {
                            if (x[357] <= 31.09749984741211) {
                                votes[0] += 1;
                            }

                            else {
                                votes[1] += 1;
                            }
                        }

                        // tree #8
                        if (x[1] <= -2.9490000009536743) {
                            if (x[144] <= 0.10599999874830246) {
                                votes[1] += 1;
                            }

                            else {
                                votes[0] += 1;
                            }
                        }

                        else {
                            if (x[389] <= -19.164999961853027) {
                                votes[1] += 1;
                            }

                            else {
                                votes[1] += 1;
                            }
                        }

                        // tree #9
                        if (x[495] <= 17.638999938964844) {
                            if (x[327] <= 26.946999549865723) {
                                votes[0] += 1;
                            }

                            else {
                                votes[1] += 1;
                            }
                        }

                        else {
                            if (x[218] <= 0.7909999787807465) {
                                votes[1] += 1;
                            }

                            else {
                                votes[1] += 1;
                            }
                        }

                        // tree #10
                        if (x[299] <= -31.372000694274902) {
                            if (x[314] <= 0.8005000054836273) {
                                votes[1] += 1;
                            }

                            else {
                                votes[1] += 1;
                            }
                        }

                        else {
                            if (x[581] <= -18.951499938964844) {
                                votes[1] += 1;
                            }

                            else {
                                votes[0] += 1;
                            }
                        }

                        // tree #11
                        if (x[407] <= -29.9375) {
                            if (x[2] <= -3.0945000648498535) {
                                votes[0] += 1;
                            }

                            else {
                                votes[1] += 1;
                            }
                        }

                        else {
                            if (x[215] <= -46.20349884033203) {
                                votes[1] += 1;
                            }

                            else {
                                votes[0] += 1;
                            }
                        }

                        // tree #12
                        if (x[281] <= -41.59550094604492) {
                            if (x[9] <= 527.0385131835938) {
                                votes[1] += 1;
                            }

                            else {
                                votes[0] += 1;
                            }
                        }

                        else {
                            if (x[221] <= 85.0525016784668) {
                                votes[0] += 1;
                            }

                            else {
                                votes[1] += 1;
                            }
                        }

                        // tree #13
                        if (x[305] <= -37.01799964904785) {
                            if (x[3] <= 394.10398864746094) {
                                votes[1] += 1;
                            }

                            else {
                                votes[0] += 1;
                            }
                        }

                        else {
                            if (x[179] <= 88.10449981689453) {
                                votes[0] += 1;
                            }

                            else {
                                votes[1] += 1;
                            }
                        }

                        // tree #14
                        if (x[3] <= 137.6344985961914) {
                            if (x[566] <= 0.3675000071525574) {
                                votes[1] += 1;
                            }

                            else {
                                votes[1] += 1;
                            }
                        }

                        else {
                            if (x[704] <= -0.7475000023841858) {
                                votes[1] += 1;
                            }

                            else {
                                votes[0] += 1;
                            }
                        }

                        // tree #15
                        if (x[389] <= -30.029000282287598) {
                            if (x[518] <= -0.7885000109672546) {
                                votes[1] += 1;
                            }

                            else {
                                votes[1] += 1;
                            }
                        }

                        else {
                            if (x[149] <= -52.24600028991699) {
                                votes[1] += 1;
                            }

                            else {
                                votes[0] += 1;
                            }
                        }

                        // tree #16
                        if (x[341] <= -27.740500450134277) {
                            if (x[133] <= 2.43149995803833) {
                                votes[1] += 1;
                            }

                            else {
                                votes[0] += 1;
                            }
                        }

                        else {
                            if (x[425] <= 79.95649719238281) {
                                votes[0] += 1;
                            }

                            else {
                                votes[1] += 1;
                            }
                        }

                        // tree #17
                        if (x[287] <= -37.81100082397461) {
                            if (x[578] <= 0.5130000114440918) {
                                votes[1] += 1;
                            }

                            else {
                                votes[1] += 1;
                            }
                        }

                        else {
                            if (x[263] <= 83.46549987792969) {
                                votes[0] += 1;
                            }

                            else {
                                votes[1] += 1;
                            }
                        }

                        // tree #18
                        if (x[0] <= 1.8845000267028809) {
                            if (x[2] <= 0.5915000140666962) {
                                votes[1] += 1;
                            }

                            else {
                                votes[1] += 1;
                            }
                        }

                        else {
                            if (x[161] <= 74.58500289916992) {
                                votes[0] += 1;
                            }

                            else {
                                votes[1] += 1;
                            }
                        }

                        // tree #19
                        if (x[461] <= -39.42850112915039) {
                            if (x[560] <= -0.7854999899864197) {
                                votes[1] += 1;
                            }

                            else {
                                votes[1] += 1;
                            }
                        }

                        else {
                            if (x[194] <= -0.04900000058114529) {
                                votes[1] += 1;
                            }

                            else {
                                votes[0] += 1;
                            }
                        }

                        // tree #20
                        if (x[311] <= -37.26199913024902) {
                            if (x[299] <= 30.639500617980957) {
                                votes[1] += 1;
                            }

                            else {
                                votes[0] += 1;
                            }
                        }

                        else {
                            if (x[3] <= 113.03700256347656) {
                                votes[1] += 1;
                            }

                            else {
                                votes[0] += 1;
                            }
                        }

                        // tree #21
                        if (x[333] <= 14.373499870300293) {
                            if (x[293] <= -37.109500885009766) {
                                votes[1] += 1;
                            }

                            else {
                                votes[0] += 1;
                            }
                        }

                        else {
                            if (x[296] <= 0.7300000190734863) {
                                votes[1] += 1;
                            }

                            else {
                                votes[1] += 1;
                            }
                        }

                        // tree #22
                        if (x[275] <= -33.6609992980957) {
                            if (x[536] <= 0.8260000050067902) {
                                votes[1] += 1;
                            }

                            else {
                                votes[0] += 1;
                            }
                        }

                        else {
                            if (x[299] <= 117.61449813842773) {
                                votes[0] += 1;
                            }

                            else {
                                votes[1] += 1;
                            }
                        }

                        // tree #23
                        if (x[425] <= -29.90700054168701) {
                            if (x[9] <= 466.36951446533203) {
                                votes[1] += 1;
                            }

                            else {
                                votes[0] += 1;
                            }
                        }

                        else {
                            if (x[0] <= 1.8975000381469727) {
                                votes[1] += 1;
                            }

                            else {
                                votes[0] += 1;
                            }
                        }

                        // tree #24
                        if (x[363] <= 11.505500316619873) {
                            if (x[281] <= -42.05350112915039) {
                                votes[1] += 1;
                            }

                            else {
                                votes[0] += 1;
                            }
                        }

                        else {
                            if (x[200] <= 0.5855000019073486) {
                                votes[1] += 1;
                            }

                            else {
                                votes[1] += 1;
                            }
                        }

                        // tree #25
                        if (x[473] <= -30.51799964904785) {
                            if (x[121] <= 2.771999955177307) {
                                votes[1] += 1;
                            }

                            else {
                                votes[0] += 1;
                            }
                        }

                        else {
                            if (x[281] <= -41.931501388549805) {
                                votes[1] += 1;
                            }

                            else {
                                votes[0] += 1;
                            }
                        }

                        // tree #26
                        if (x[1] <= -2.5134999752044678) {
                            if (x[349] <= -0.972000002861023) {
                                votes[1] += 1;
                            }

                            else {
                                votes[0] += 1;
                            }
                        }

                        else {
                            if (x[263] <= -27.83199977874756) {
                                votes[1] += 1;
                            }

                            else {
                                votes[1] += 1;
                            }
                        }

                        // tree #27
                        if (x[0] <= 1.722000002861023) {
                            if (x[158] <= 0.34450000524520874) {
                                votes[1] += 1;
                            }

                            else {
                                votes[1] += 1;
                            }
                        }

                        else {
                            if (x[339] <= 23.284500122070312) {
                                votes[0] += 1;
                            }

                            else {
                                votes[1] += 1;
                            }
                        }

                        // tree #28
                        if (x[455] <= -36.4379997253418) {
                            if (x[384] <= -0.05949999950826168) {
                                votes[1] += 1;
                            }

                            else {
                                votes[1] += 1;
                            }
                        }

                        else {
                            if (x[1] <= -2.934000015258789) {
                                votes[0] += 1;
                            }

                            else {
                                votes[1] += 1;
                            }
                        }

                        // tree #29
                        if (x[407] <= -21.08750057220459) {
                            if (x[39] <= 190.49099731445312) {
                                votes[1] += 1;
                            }

                            else {
                                votes[0] += 1;
                            }
                        }

                        else {
                            if (x[431] <= 68.69499969482422) {
                                votes[0] += 1;
                            }

                            else {
                                votes[1] += 1;
                            }
                        }

                        // tree #30
                        if (x[3] <= 225.70800018310547) {
                            if (x[470] <= 0.37049999833106995) {
                                votes[1] += 1;
                            }

                            else {
                                votes[1] += 1;
                            }
                        }

                        else {
                            if (x[584] <= -0.7195000052452087) {
                                votes[1] += 1;
                            }

                            else {
                                votes[0] += 1;
                            }
                        }

                        // tree #31
                        if (x[371] <= -27.31350040435791) {
                            votes[1] += 1;
                        }

                        else {
                            if (x[335] <= 85.84600067138672) {
                                votes[0] += 1;
                            }

                            else {
                                votes[1] += 1;
                            }
                        }

                        // tree #32
                        if (x[317] <= -30.059499740600586) {
                            if (x[347] <= -44.647499084472656) {
                                votes[1] += 1;
                            }

                            else {
                                votes[1] += 1;
                            }
                        }

                        else {
                            if (x[0] <= 2.087000012397766) {
                                votes[1] += 1;
                            }

                            else {
                                votes[0] += 1;
                            }
                        }

                        // tree #33
                        if (x[347] <= -29.632500648498535) {
                            if (x[151] <= 2.680999994277954) {
                                votes[1] += 1;
                            }

                            else {
                                votes[0] += 1;
                            }
                        }

                        else {
                            if (x[9] <= 63.201499938964844) {
                                votes[1] += 1;
                            }

                            else {
                                votes[0] += 1;
                            }
                        }

                        // tree #34
                        if (x[489] <= 10.101500034332275) {
                            if (x[407] <= -27.648999214172363) {
                                votes[1] += 1;
                            }

                            else {
                                votes[0] += 1;
                            }
                        }

                        else {
                            if (x[374] <= 0.7409999966621399) {
                                votes[1] += 1;
                            }

                            else {
                                votes[1] += 1;
                            }
                        }

                        // tree #35
                        if (x[353] <= -28.31999969482422) {
                            if (x[704] <= 0.7985000014305115) {
                                votes[1] += 1;
                            }

                            else {
                                votes[1] += 1;
                            }
                        }

                        else {
                            if (x[95] <= -78.76549911499023) {
                                votes[1] += 1;
                            }

                            else {
                                votes[0] += 1;
                            }
                        }

                        // tree #36
                        if (x[0] <= 1.696999967098236) {
                            if (x[422] <= 0.33249999582767487) {
                                votes[1] += 1;
                            }

                            else {
                                votes[0] += 1;
                            }
                        }

                        else {
                            if (x[548] <= -0.6960000097751617) {
                                votes[1] += 1;
                            }

                            else {
                                votes[0] += 1;
                            }
                        }

                        // tree #37
                        if (x[375] <= 11.474999904632568) {
                            if (x[293] <= -42.51099967956543) {
                                votes[1] += 1;
                            }

                            else {
                                votes[0] += 1;
                            }
                        }

                        else {
                            if (x[128] <= 0.8050000071525574) {
                                votes[1] += 1;
                            }

                            else {
                                votes[1] += 1;
                            }
                        }

                        // tree #38
                        if (x[465] <= 6.134500026702881) {
                            if (x[155] <= 106.3844985961914) {
                                votes[0] += 1;
                            }

                            else {
                                votes[1] += 1;
                            }
                        }

                        else {
                            if (x[314] <= 0.443000003695488) {
                                votes[1] += 1;
                            }

                            else {
                                votes[0] += 1;
                            }
                        }

                        // tree #39
                        if (x[0] <= 1.8865000009536743) {
                            if (x[350] <= 0.335999995470047) {
                                votes[1] += 1;
                            }

                            else {
                                votes[1] += 1;
                            }
                        }

                        else {
                            if (x[180] <= 1.2604999542236328) {
                                votes[0] += 1;
                            }

                            else {
                                votes[1] += 1;
                            }
                        }

                        // tree #40
                        if (x[401] <= -22.949000358581543) {
                            if (x[18] <= 2.23199999332428) {
                                votes[1] += 1;
                            }

                            else {
                                votes[1] += 1;
                            }
                        }

                        else {
                            if (x[471] <= 14.831500053405762) {
                                votes[0] += 1;
                            }

                            else {
                                votes[1] += 1;
                            }
                        }

                        // tree #41
                        if (x[401] <= -26.977999687194824) {
                            if (x[2] <= -3.0945000648498535) {
                                votes[0] += 1;
                            }

                            else {
                                votes[1] += 1;
                            }
                        }

                        else {
                            if (x[405] <= 15.594500064849854) {
                                votes[0] += 1;
                            }

                            else {
                                votes[1] += 1;
                            }
                        }

                        // tree #42
                        if (x[293] <= -36.52950096130371) {
                            if (x[656] <= 0.5100000202655792) {
                                votes[1] += 1;
                            }

                            else {
                                votes[1] += 1;
                            }
                        }

                        else {
                            if (x[275] <= 99.12099838256836) {
                                votes[0] += 1;
                            }

                            else {
                                votes[1] += 1;
                            }
                        }

                        // tree #43
                        if (x[395] <= -30.09000015258789) {
                            if (x[446] <= -0.7245000004768372) {
                                votes[1] += 1;
                            }

                            else {
                                votes[1] += 1;
                            }
                        }

                        else {
                            if (x[0] <= 1.706999957561493) {
                                votes[1] += 1;
                            }

                            else {
                                votes[0] += 1;
                            }
                        }

                        // tree #44
                        if (x[335] <= -24.170000076293945) {
                            if (x[15] <= 255.3715057373047) {
                                votes[1] += 1;
                            }

                            else {
                                votes[1] += 1;
                            }
                        }

                        else {
                            if (x[239] <= 94.94050216674805) {
                                votes[0] += 1;
                            }

                            else {
                                votes[1] += 1;
                            }
                        }

                        // tree #45
                        if (x[447] <= 6.011499881744385) {
                            if (x[329] <= -37.5364990234375) {
                                votes[1] += 1;
                            }

                            else {
                                votes[0] += 1;
                            }
                        }

                        else {
                            if (x[218] <= 0.6389999985694885) {
                                votes[1] += 1;
                            }

                            else {
                                votes[1] += 1;
                            }
                        }

                        // tree #46
                        if (x[341] <= -25.359999656677246) {
                            if (x[578] <= -0.8555000126361847) {
                                votes[1] += 1;
                            }

                            else {
                                votes[1] += 1;
                            }
                        }

                        else {
                            if (x[101] <= -106.29249954223633) {
                                votes[1] += 1;
                            }

                            else {
                                votes[0] += 1;
                            }
                        }

                        // tree #47
                        if (x[447] <= 8.331500053405762) {
                            if (x[395] <= -32.80650043487549) {
                                votes[1] += 1;
                            }

                            else {
                                votes[0] += 1;
                            }
                        }

                        else {
                            if (x[140] <= 0.7070000171661377) {
                                votes[1] += 1;
                            }

                            else {
                                votes[0] += 1;
                            }
                        }

                        // tree #48
                        if (x[281] <= -41.59550094604492) {
                            votes[1] += 1;
                        }

                        else {
                            if (x[467] <= -40.313499450683594) {
                                votes[1] += 1;
                            }

                            else {
                                votes[0] += 1;
                            }
                        }

                        // tree #49
                        if (x[407] <= -27.648999214172363) {
                            if (x[15] <= 312.2864990234375) {
                                votes[1] += 1;
                            }

                            else {
                                votes[0] += 1;
                            }
                        }

                        else {
                            if (x[299] <= 109.10000228881836) {
                                votes[0] += 1;
                            }

                            else {
                                votes[1] += 1;
                            }
                        }

                        // tree #50
                        if (x[221] <= 82.70299911499023) {
                            if (x[489] <= 24.23099994659424) {
                                votes[0] += 1;
                            }

                            else {
                                votes[1] += 1;
                            }
                        }

                        else {
                            if (x[180] <= 1.1255000233650208) {
                                votes[1] += 1;
                            }

                            else {
                                votes[0] += 1;
                            }
                        }

                        // tree #51
                        if (x[191] <= 77.78900146484375) {
                            if (x[155] <= -47.54599952697754) {
                                votes[1] += 1;
                            }

                            else {
                                votes[0] += 1;
                            }
                        }

                        else {
                            if (x[364] <= 93.56650161743164) {
                                votes[1] += 1;
                            }

                            else {
                                votes[1] += 1;
                            }
                        }

                        // tree #52
                        if (x[347] <= -29.236000061035156) {
                            votes[1] += 1;
                        }

                        else {
                            if (x[0] <= 1.7164999842643738) {
                                votes[1] += 1;
                            }

                            else {
                                votes[0] += 1;
                            }
                        }

                        // tree #53
                        if (x[519] <= 12.054500102996826) {
                            if (x[359] <= -28.900500297546387) {
                                votes[1] += 1;
                            }

                            else {
                                votes[0] += 1;
                            }
                        }

                        else {
                            if (x[248] <= 0.56700000166893) {
                                votes[1] += 1;
                            }

                            else {
                                votes[1] += 1;
                            }
                        }

                        // tree #54
                        if (x[233] <= -56.732500076293945) {
                            if (x[64] <= 235.3209991455078) {
                                votes[1] += 1;
                            }

                            else {
                                votes[0] += 1;
                            }
                        }

                        else {
                            if (x[299] <= 117.30949783325195) {
                                votes[0] += 1;
                            }

                            else {
                                votes[1] += 1;
                            }
                        }

                        // tree #55
                        if (x[473] <= -31.15850067138672) {
                            if (x[398] <= 0.9629999995231628) {
                                votes[1] += 1;
                            }

                            else {
                                votes[0] += 1;
                            }
                        }

                        else {
                            if (x[221] <= -57.64750099182129) {
                                votes[1] += 1;
                            }

                            else {
                                votes[0] += 1;
                            }
                        }

                        // tree #56
                        if (x[9] <= 114.65449905395508) {
                            if (x[161] <= -17.42549991607666) {
                                votes[1] += 1;
                            }

                            else {
                                votes[1] += 1;
                            }
                        }

                        else {
                            if (x[314] <= -0.5144999921321869) {
                                votes[1] += 1;
                            }

                            else {
                                votes[0] += 1;
                            }
                        }

                        // tree #57
                        if (x[425] <= -29.23550033569336) {
                            if (x[123] <= -191.98600006103516) {
                                votes[1] += 1;
                            }

                            else {
                                votes[1] += 1;
                            }
                        }

                        else {
                            if (x[263] <= -41.321001052856445) {
                                votes[1] += 1;
                            }

                            else {
                                votes[0] += 1;
                            }
                        }

                        // tree #58
                        if (x[441] <= 6.86650013923645) {
                            if (x[317] <= -42.81650161743164) {
                                votes[1] += 1;
                            }

                            else {
                                votes[0] += 1;
                            }
                        }

                        else {
                            if (x[494] <= 0.8180000185966492) {
                                votes[1] += 1;
                            }

                            else {
                                votes[1] += 1;
                            }
                        }

                        // tree #59
                        if (x[3] <= 136.6884994506836) {
                            if (x[320] <= 0.38099999725818634) {
                                votes[1] += 1;
                            }

                            else {
                                votes[1] += 1;
                            }
                        }

                        else {
                            if (x[367] <= -0.9359999895095825) {
                                votes[1] += 1;
                            }

                            else {
                                votes[0] += 1;
                            }
                        }

                        // tree #60
                        if (x[263] <= -39.91699981689453) {
                            votes[1] += 1;
                        }

                        else {
                            if (x[251] <= 79.10200119018555) {
                                votes[0] += 1;
                            }

                            else {
                                votes[1] += 1;
                            }
                        }

                        // tree #61
                        if (x[473] <= -43.152000427246094) {
                            if (x[614] <= -0.968500018119812) {
                                votes[1] += 1;
                            }

                            else {
                                votes[1] += 1;
                            }
                        }

                        else {
                            if (x[188] <= -0.058000000193715096) {
                                votes[1] += 1;
                            }

                            else {
                                votes[0] += 1;
                            }
                        }

                        // tree #62
                        if (x[425] <= -30.822999954223633) {
                            if (x[668] <= 0.9675000011920929) {
                                votes[1] += 1;
                            }

                            else {
                                votes[1] += 1;
                            }
                        }

                        else {
                            if (x[284] <= -0.06500000134110451) {
                                votes[1] += 1;
                            }

                            else {
                                votes[0] += 1;
                            }
                        }

                        // tree #63
                        if (x[419] <= -30.608999252319336) {
                            if (x[686] <= -0.6234999895095825) {
                                votes[1] += 1;
                            }

                            else {
                                votes[1] += 1;
                            }
                        }

                        else {
                            if (x[227] <= -39.30649948120117) {
                                votes[1] += 1;
                            }

                            else {
                                votes[0] += 1;
                            }
                        }

                        // tree #64
                        if (x[407] <= -30.76200008392334) {
                            if (x[157] <= 2.763000011444092) {
                                votes[1] += 1;
                            }

                            else {
                                votes[0] += 1;
                            }
                        }

                        else {
                            if (x[353] <= 90.57600021362305) {
                                votes[0] += 1;
                            }

                            else {
                                votes[1] += 1;
                            }
                        }

                        // tree #65
                        if (x[353] <= -24.657999992370605) {
                            if (x[29] <= -60.73000144958496) {
                                votes[1] += 1;
                            }

                            else {
                                votes[1] += 1;
                            }
                        }

                        else {
                            if (x[341] <= 95.67250061035156) {
                                votes[0] += 1;
                            }

                            else {
                                votes[1] += 1;
                            }
                        }

                        // tree #66
                        if (x[305] <= -31.677000045776367) {
                            if (x[548] <= 0.7935000061988831) {
                                votes[1] += 1;
                            }

                            else {
                                votes[1] += 1;
                            }
                        }

                        else {
                            if (x[521] <= -53.19200134277344) {
                                votes[1] += 1;
                            }

                            else {
                                votes[0] += 1;
                            }
                        }

                        // tree #67
                        if (x[485] <= -30.518000602722168) {
                            if (x[133] <= 2.43149995803833) {
                                votes[1] += 1;
                            }

                            else {
                                votes[0] += 1;
                            }
                        }

                        else {
                            if (x[209] <= -49.8960018157959) {
                                votes[1] += 1;
                            }

                            else {
                                votes[0] += 1;
                            }
                        }

                        // tree #68
                        if (x[401] <= -27.16100025177002) {
                            if (x[103] <= 2.283500075340271) {
                                votes[1] += 1;
                            }

                            else {
                                votes[1] += 1;
                            }
                        }

                        else {
                            if (x[441] <= 6.86650013923645) {
                                votes[0] += 1;
                            }

                            else {
                                votes[1] += 1;
                            }
                        }

                        // tree #69
                        if (x[431] <= -28.748000144958496) {
                            if (x[57] <= -142.18150329589844) {
                                votes[1] += 1;
                            }

                            else {
                                votes[1] += 1;
                            }
                        }

                        else {
                            if (x[143] <= -74.58499908447266) {
                                votes[1] += 1;
                            }

                            else {
                                votes[0] += 1;
                            }
                        }

                        // tree #70
                        if (x[3] <= 142.02849578857422) {
                            if (x[407] <= -21.08750057220459) {
                                votes[1] += 1;
                            }

                            else {
                                votes[1] += 1;
                            }
                        }

                        else {
                            if (x[620] <= -0.7749999761581421) {
                                votes[1] += 1;
                            }

                            else {
                                votes[0] += 1;
                            }
                        }

                        // tree #71
                        if (x[0] <= 1.696999967098236) {
                            if (x[698] <= 0.3830000013113022) {
                                votes[1] += 1;
                            }

                            else {
                                votes[0] += 1;
                            }
                        }

                        else {
                            if (x[554] <= -0.628000020980835) {
                                votes[1] += 1;
                            }

                            else {
                                votes[0] += 1;
                            }
                        }

                        // tree #72
                        if (x[3] <= 97.44250106811523) {
                            if (x[686] <= 0.37849999964237213) {
                                votes[1] += 1;
                            }

                            else {
                                votes[1] += 1;
                            }
                        }

                        else {
                            if (x[379] <= -0.9669999778270721) {
                                votes[1] += 1;
                            }

                            else {
                                votes[0] += 1;
                            }
                        }

                        // tree #73
                        if (x[299] <= -33.17250061035156) {
                            if (x[584] <= 0.5485000014305115) {
                                votes[1] += 1;
                            }

                            else {
                                votes[1] += 1;
                            }
                        }

                        else {
                            if (x[325] <= 0.948500007390976) {
                                votes[0] += 1;
                            }

                            else {
                                votes[1] += 1;
                            }
                        }

                        // tree #74
                        if (x[495] <= 13.153500080108643) {
                            if (x[455] <= -36.40749931335449) {
                                votes[1] += 1;
                            }

                            else {
                                votes[0] += 1;
                            }
                        }

                        else {
                            if (x[284] <= 0.698500007390976) {
                                votes[1] += 1;
                            }

                            else {
                                votes[1] += 1;
                            }
                        }

                        // tree #75
                        if (x[299] <= -33.17250061035156) {
                            if (x[548] <= 0.4090000092983246) {
                                votes[1] += 1;
                            }

                            else {
                                votes[1] += 1;
                            }
                        }

                        else {
                            if (x[227] <= 84.71649932861328) {
                                votes[0] += 1;
                            }

                            else {
                                votes[1] += 1;
                            }
                        }

                        // tree #76
                        if (x[377] <= -24.56700038909912) {
                            if (x[63] <= -173.06500244140625) {
                                votes[0] += 1;
                            }

                            else {
                                votes[1] += 1;
                            }
                        }

                        else {
                            if (x[95] <= -72.08250045776367) {
                                votes[1] += 1;
                            }

                            else {
                                votes[0] += 1;
                            }
                        }

                        // tree #77
                        if (x[3] <= 97.44250106811523) {
                            if (x[398] <= 0.3425000011920929) {
                                votes[1] += 1;
                            }

                            else {
                                votes[1] += 1;
                            }
                        }

                        else {
                            if (x[363] <= -2.166499972343445) {
                                votes[0] += 1;
                            }

                            else {
                                votes[1] += 1;
                            }
                        }

                        // tree #78
                        if (x[371] <= -27.069000244140625) {
                            if (x[500] <= -0.7300000190734863) {
                                votes[1] += 1;
                            }

                            else {
                                votes[1] += 1;
                            }
                        }

                        else {
                            if (x[0] <= 1.696999967098236) {
                                votes[1] += 1;
                            }

                            else {
                                votes[0] += 1;
                            }
                        }

                        // tree #79
                        if (x[374] <= 0.35850000381469727) {
                            if (x[2] <= 1.8309999704360962) {
                                votes[1] += 1;
                            }

                            else {
                                votes[0] += 1;
                            }
                        }

                        else {
                            if (x[608] <= 0.3344999998807907) {
                                votes[1] += 1;
                            }

                            else {
                                votes[0] += 1;
                            }
                        }

                        // tree #80
                        if (x[281] <= -41.931501388549805) {
                            votes[1] += 1;
                        }

                        else {
                            if (x[245] <= 84.6865005493164) {
                                votes[0] += 1;
                            }

                            else {
                                votes[1] += 1;
                            }
                        }

                        // tree #81
                        if (x[539] <= -37.53650093078613) {
                            if (x[38] <= 1.3499999642372131) {
                                votes[1] += 1;
                            }

                            else {
                                votes[1] += 1;
                            }
                        }

                        else {
                            if (x[224] <= -0.09549999982118607) {
                                votes[1] += 1;
                            }

                            else {
                                votes[0] += 1;
                            }
                        }

                        // tree #82
                        if (x[341] <= -25.45199966430664) {
                            if (x[9] <= 555.2975158691406) {
                                votes[1] += 1;
                            }

                            else {
                                votes[0] += 1;
                            }
                        }

                        else {
                            if (x[233] <= 73.48600006103516) {
                                votes[0] += 1;
                            }

                            else {
                                votes[1] += 1;
                            }
                        }

                        // tree #83
                        if (x[473] <= -29.90700054168701) {
                            if (x[42] <= 1.949500024318695) {
                                votes[1] += 1;
                            }

                            else {
                                votes[0] += 1;
                            }
                        }

                        else {
                            if (x[149] <= -69.76350021362305) {
                                votes[1] += 1;
                            }

                            else {
                                votes[0] += 1;
                            }
                        }

                        // tree #84
                        if (x[455] <= -36.40749931335449) {
                            if (x[422] <= 0.906000018119812) {
                                votes[1] += 1;
                            }

                            else {
                                votes[1] += 1;
                            }
                        }

                        else {
                            if (x[233] <= -57.15950012207031) {
                                votes[1] += 1;
                            }

                            else {
                                votes[0] += 1;
                            }
                        }

                        // tree #85
                        if (x[473] <= -33.60000038146973) {
                            if (x[356] <= 0.949999988079071) {
                                votes[1] += 1;
                            }

                            else {
                                votes[1] += 1;
                            }
                        }

                        else {
                            if (x[483] <= 12.817500114440918) {
                                votes[0] += 1;
                            }

                            else {
                                votes[1] += 1;
                            }
                        }

                        // tree #86
                        if (x[215] <= -55.41950035095215) {
                            if (x[9] <= 467.49901580810547) {
                                votes[1] += 1;
                            }

                            else {
                                votes[0] += 1;
                            }
                        }

                        else {
                            if (x[449] <= -46.203500747680664) {
                                votes[1] += 1;
                            }

                            else {
                                votes[0] += 1;
                            }
                        }

                        // tree #87
                        if (x[194] <= -0.04350000061094761) {
                            if (x[1] <= -3.490000009536743) {
                                votes[0] += 1;
                            }

                            else {
                                votes[1] += 1;
                            }
                        }

                        else {
                            if (x[401] <= -23.163000106811523) {
                                votes[1] += 1;
                            }

                            else {
                                votes[0] += 1;
                            }
                        }

                        // tree #88
                        if (x[375] <= 7.110499858856201) {
                            if (x[377] <= -25.177000045776367) {
                                votes[1] += 1;
                            }

                            else {
                                votes[0] += 1;
                            }
                        }

                        else {
                            if (x[578] <= 0.6884999871253967) {
                                votes[1] += 1;
                            }

                            else {
                                votes[1] += 1;
                            }
                        }

                        // tree #89
                        if (x[203] <= 88.9280014038086) {
                            if (x[185] <= -35.61400032043457) {
                                votes[1] += 1;
                            }

                            else {
                                votes[0] += 1;
                            }
                        }

                        else {
                            if (x[186] <= 1.231499969959259) {
                                votes[1] += 1;
                            }

                            else {
                                votes[0] += 1;
                            }
                        }

                        // tree #90
                        if (x[635] <= -18.829500198364258) {
                            if (x[536] <= 0.7915000021457672) {
                                votes[1] += 1;
                            }

                            else {
                                votes[1] += 1;
                            }
                        }

                        else {
                            if (x[0] <= 1.8019999861717224) {
                                votes[1] += 1;
                            }

                            else {
                                votes[0] += 1;
                            }
                        }

                        // tree #91
                        if (x[467] <= -23.101499557495117) {
                            if (x[678] <= 0.39650000631809235) {
                                votes[1] += 1;
                            }

                            else {
                                votes[1] += 1;
                            }
                        }

                        else {
                            if (x[185] <= -58.65449905395508) {
                                votes[1] += 1;
                            }

                            else {
                                votes[0] += 1;
                            }
                        }

                        // tree #92
                        if (x[203] <= 105.2244987487793) {
                            if (x[203] <= -56.30500030517578) {
                                votes[1] += 1;
                            }

                            else {
                                votes[0] += 1;
                            }
                        }

                        else {
                            if (x[181] <= -2.028499960899353) {
                                votes[1] += 1;
                            }

                            else {
                                votes[1] += 1;
                            }
                        }

                        // tree #93
                        if (x[3] <= 138.70249938964844) {
                            if (x[200] <= 0.3889999985694885) {
                                votes[1] += 1;
                            }

                            else {
                                votes[1] += 1;
                            }
                        }

                        else {
                            if (x[387] <= -1.6480000019073486) {
                                votes[0] += 1;
                            }

                            else {
                                votes[1] += 1;
                            }
                        }

                        // tree #94
                        if (x[1] <= -2.9490000009536743) {
                            if (x[642] <= -0.05049999989569187) {
                                votes[1] += 1;
                            }

                            else {
                                votes[0] += 1;
                            }
                        }

                        else {
                            if (x[347] <= -29.41900062561035) {
                                votes[1] += 1;
                            }

                            else {
                                votes[1] += 1;
                            }
                        }

                        // tree #95
                        if (x[539] <= -23.498499870300293) {
                            if (x[522] <= -1.4760000109672546) {
                                votes[0] += 1;
                            }

                            else {
                                votes[1] += 1;
                            }
                        }

                        else {
                            if (x[245] <= -40.558000564575195) {
                                votes[1] += 1;
                            }

                            else {
                                votes[0] += 1;
                            }
                        }

                        // tree #96
                        if (x[602] <= 0.3629999905824661) {
                            if (x[108] <= 0.8894999921321869) {
                                votes[1] += 1;
                            }

                            else {
                                votes[0] += 1;
                            }
                        }

                        else {
                            if (x[338] <= 0.2620000094175339) {
                                votes[1] += 1;
                            }

                            else {
                                votes[0] += 1;
                            }
                        }

                        // tree #97
                        if (x[425] <= -30.914499282836914) {
                            if (x[530] <= -0.7909999787807465) {
                                votes[1] += 1;
                            }

                            else {
                                votes[1] += 1;
                            }
                        }

                        else {
                            if (x[435] <= 5.889500141143799) {
                                votes[0] += 1;
                            }

                            else {
                                votes[1] += 1;
                            }
                        }

                        // tree #98
                        if (x[383] <= -28.076499938964844) {
                            if (x[458] <= -0.6910000145435333) {
                                votes[1] += 1;
                            }

                            else {
                                votes[1] += 1;
                            }
                        }

                        else {
                            if (x[351] <= 11.199499607086182) {
                                votes[0] += 1;
                            }

                            else {
                                votes[1] += 1;
                            }
                        }

                        // tree #99
                        if (x[449] <= -24.138999938964844) {
                            if (x[578] <= -0.8050000071525574) {
                                votes[1] += 1;
                            }

                            else {
                                votes[1] += 1;
                            }
                        }

                        else {
                            if (x[3] <= 71.7770004272461) {
                                votes[1] += 1;
                            }

                            else {
                                votes[0] += 1;
                            }
                        }

                        // tree #100
                        if (x[0] <= 1.6959999799728394) {
                            if (x[596] <= 0.346000000834465) {
                                votes[1] += 1;
                            }

                            else {
                                votes[0] += 1;
                            }
                        }

                        else {
                            if (x[314] <= -0.6419999897480011) {
                                votes[1] += 1;
                            }

                            else {
                                votes[0] += 1;
                            }
                        }

                        // return argmax of votes
                        uint8_t classIdx = 0;
                        float maxVotes = votes[0];

                        for (uint8_t i = 1; i < 2; i++) {
                            if (votes[i] > maxVotes) {
                                classIdx = i;
                                maxVotes = votes[i];
                            }
                        }

                        return classIdx;
                    }

                protected:
                };
            }
        }
    }